<?xml version="1.0"?>
<MethodSetup Method="MLP::MLP">
  <GeneralInfo>
    <Info name="TMVA Release" value="4.2.0 [262656]"/>
    <Info name="ROOT Release" value="5.32/00 [335872]"/>
    <Info name="Creator" value="zmao"/>
    <Info name="Date" value="Wed Apr 16 21:41:09 2014"/>
    <Info name="Host" value="Linux vocms19.cern.ch 2.6.32-358.6.2.el6.x86_64 #1 SMP Thu May 16 21:00:12 CEST 2013 x86_64 x86_64 x86_64 GNU/Linux"/>
    <Info name="Dir" value="/afs/hep.wisc.edu/user/zmao/CMSSW_5_3_15/src/TMVA-v4.2.0/test"/>
    <Info name="Training events" value="5000"/>
    <Info name="TrainingTime" value="9.59908459e+01"/>
    <Info name="AnalysisType" value="Regression"/>
  </GeneralInfo>
  <Options>
    <Option name="NCycles" modified="Yes">20000</Option>
    <Option name="HiddenLayers" modified="Yes">N+20</Option>
    <Option name="NeuronType" modified="Yes">tanh</Option>
    <Option name="RandomSeed" modified="No">1</Option>
    <Option name="EstimatorType" modified="No">MSE</Option>
    <Option name="NeuronInputType" modified="No">sum</Option>
    <Option name="V" modified="Yes">False</Option>
    <Option name="VerbosityLevel" modified="No">Default</Option>
    <Option name="VarTransform" modified="Yes">Norm</Option>
    <Option name="H" modified="Yes">False</Option>
    <Option name="CreateMVAPdfs" modified="No">False</Option>
    <Option name="IgnoreNegWeightsInTraining" modified="No">False</Option>
    <Option name="TrainingMethod" modified="Yes">BFGS</Option>
    <Option name="LearningRate" modified="No">2.000000e-02</Option>
    <Option name="DecayRate" modified="No">1.000000e-02</Option>
    <Option name="TestRate" modified="Yes">6</Option>
    <Option name="EpochMonitoring" modified="No">False</Option>
    <Option name="Sampling" modified="Yes">3.000000e-01</Option>
    <Option name="SamplingEpoch" modified="Yes">8.000000e-01</Option>
    <Option name="SamplingImportance" modified="No">1.000000e+00</Option>
    <Option name="SamplingTraining" modified="No">True</Option>
    <Option name="SamplingTesting" modified="No">False</Option>
    <Option name="ResetStep" modified="No">50</Option>
    <Option name="Tau" modified="No">3.000000e+00</Option>
    <Option name="BPMode" modified="No">sequential</Option>
    <Option name="BatchSize" modified="No">-1</Option>
    <Option name="ConvergenceImprove" modified="Yes">1.000000e-06</Option>
    <Option name="ConvergenceTests" modified="Yes">15</Option>
    <Option name="UseRegulator" modified="Yes">False</Option>
    <Option name="UpdateLimit" modified="No">10000</Option>
    <Option name="CalculateErrors" modified="No">False</Option>
    <Option name="WeightRange" modified="No">1.000000e+00</Option>
  </Options>
  <Variables NVar="2">
    <Variable VarIndex="0" Expression="var1" Label="var1" Title="Variable 1" Unit="units" Internal="var1" Type="F" Min="1.96635723e-03" Max="4.99997044e+00"/>
    <Variable VarIndex="1" Expression="var2" Label="var2" Title="Variable 2" Unit="units" Internal="var2" Type="F" Min="3.21418047e-03" Max="4.99897623e+00"/>
  </Variables>
  <Spectators NSpec="2">
    <Spectator SpecIndex="0" Expression="var1*2" Label="spec1" Title="Spectator 1" Unit="units" Internal="spec1" Type="F" Min="3.93271446e-03" Max="9.99994087e+00"/>
    <Spectator SpecIndex="1" Expression="var1*3" Label="spec2" Title="Spectator 2" Unit="units" Internal="spec2" Type="F" Min="5.89907169e-03" Max="1.49999113e+01"/>
  </Spectators>
  <Classes NClass="1">
    <Class Name="Regression" Index="0"/>
  </Classes>
  <Targets NTrgt="1">
    <Target TargetIndex="0" Expression="fvalue" Label="fvalue" Title="fvalue" Unit="" Internal="fvalue" Type="F" Min="1.71436191e+00" Max="3.91853851e+02"/>
  </Targets>
  <Transformations NTransformations="1">
    <Transform Name="Normalize">
      <Selection>
        <Input NInputs="3">
          <Input Type="Variable" Label="var1" Expression="var1"/>
          <Input Type="Variable" Label="var2" Expression="var2"/>
          <Input Type="Target" Label="fvalue" Expression="fvalue"/>
        </Input>
        <Output NOutputs="3">
          <Output Type="Variable" Label="var1" Expression="var1"/>
          <Output Type="Variable" Label="var2" Expression="var2"/>
          <Output Type="Target" Label="fvalue" Expression="fvalue"/>
        </Output>
      </Selection>
      <Class ClassIndex="0">
        <Ranges>
          <Range Index="0" Min="1.9663572311401367e-03" Max="4.9999704360961914e+00"/>
          <Range Index="1" Min="3.2141804695129395e-03" Max="4.9989762306213379e+00"/>
          <Range Index="2" Min="1.7143619060516357e+00" Max="3.9185385131835938e+02"/>
        </Ranges>
      </Class>
    </Transform>
  </Transformations>
  <MVAPdfs/>
  <Weights>
    <Layout NLayers="3">
      <Layer Index="0" NNeurons="3">
        <Neuron NSynapses="22">
          -2.0992714618516892e-01 1.2430425315001903e+00 8.8368419075758331e-01 9.3759162374287186e-01 -1.3443352778830224e+00 -4.7833035738106167e-01 -8.8894893194527491e-01 1.4776273066844317e+00 -1.2048568737770868e+00 -7.9143660368027569e-01 -9.2749188217718048e-01 -4.1562786086074838e-01 -1.2611460928992415e+00 -4.8986404546551970e-01 -1.2768128079603389e-01 3.9387404102059670e-01 -1.3933457054150328e-01 1.6738100872297983e+00 5.6939142662132652e-02 1.2908281032540694e+00 -2.6615527239024661e-01 -6.4613969671741467e-01 
        </Neuron>
        <Neuron NSynapses="22">
          7.9130524797818702e-01 1.3530861741224631e-01 -7.6586980403283389e-01 -6.8727921142850334e-01 5.5052631183848244e-01 -8.3813842150927487e-01 -1.5618038274123676e+00 -1.7368273904707918e-01 5.0407069692885975e-01 1.2952414870221589e+00 -1.9677174676052699e-02 -2.7523996300048426e-01 -3.0601714259409565e-02 -2.9823417920280454e-01 -5.8148512741464387e-01 1.2899679085501377e+00 -1.2042626485692787e+00 7.4492467161597498e-01 1.0175322634943269e+00 8.0336789963291300e-01 1.3325691999612619e+00 6.8302794651557963e-01 
        </Neuron>
        <Neuron NSynapses="22">
          -7.6445407586627467e-01 -1.9376210598640780e+00 1.0686755055258326e+00 4.3816534287291292e-01 2.3560116765650627e+00 1.2863909344105997e+00 1.8992000007071173e+00 1.2459515010226780e+00 -1.3179514030791439e+00 1.8236772590454260e+00 -2.2798122660158642e+00 -7.3442740448107169e-01 -1.2537113397537589e+00 -1.7619451325551954e+00 2.1648337316091646e+00 -3.7753718930746250e-02 -1.7540786175245404e+00 9.5843484040920413e-01 -6.1673129923241594e-02 8.9565482651379891e-01 1.8451831925106308e+00 -4.0512774212619690e-01 
        </Neuron>
      </Layer>
      <Layer Index="1" NNeurons="23">
        <Neuron NSynapses="1">
          3.1421732313480377e-01 
        </Neuron>
        <Neuron NSynapses="1">
          -5.8613868824645150e-02 
        </Neuron>
        <Neuron NSynapses="1">
          4.3227712448037253e-01 
        </Neuron>
        <Neuron NSynapses="1">
          -6.0313626680771293e-01 
        </Neuron>
        <Neuron NSynapses="1">
          -4.2838151614837489e-01 
        </Neuron>
        <Neuron NSynapses="1">
          -1.7631985880492342e+00 
        </Neuron>
        <Neuron NSynapses="1">
          1.6223367270850833e-01 
        </Neuron>
        <Neuron NSynapses="1">
          8.1353022886465287e-01 
        </Neuron>
        <Neuron NSynapses="1">
          1.1393093057073926e+00 
        </Neuron>
        <Neuron NSynapses="1">
          -1.8206569052808469e-01 
        </Neuron>
        <Neuron NSynapses="1">
          -1.7593004241512844e+00 
        </Neuron>
        <Neuron NSynapses="1">
          -1.8902880943653264e+00 
        </Neuron>
        <Neuron NSynapses="1">
          9.6111940426716691e-01 
        </Neuron>
        <Neuron NSynapses="1">
          4.1669035753791461e-01 
        </Neuron>
        <Neuron NSynapses="1">
          1.7128716731599685e+00 
        </Neuron>
        <Neuron NSynapses="1">
          1.8263598976570797e-01 
        </Neuron>
        <Neuron NSynapses="1">
          9.0047508451216374e-01 
        </Neuron>
        <Neuron NSynapses="1">
          -7.9538738814661850e-02 
        </Neuron>
        <Neuron NSynapses="1">
          -2.8316030018428234e-01 
        </Neuron>
        <Neuron NSynapses="1">
          1.1395370657950019e-01 
        </Neuron>
        <Neuron NSynapses="1">
          5.4617555400503348e-01 
        </Neuron>
        <Neuron NSynapses="1">
          -6.6063527232224806e-01 
        </Neuron>
        <Neuron NSynapses="1">
          -1.5059201064259038e+00 
        </Neuron>
      </Layer>
      <Layer Index="2" NNeurons="1">
        <Neuron NSynapses="0"/>
      </Layer>
    </Layout>
  </Weights>
</MethodSetup>
